//Numpy array shape [3, 1, 32]
//Min -1.781250000000
//Max 1.937500000000
//Number of zeros 1

#ifndef W2_H_
#define W2_H_

#ifndef __SYNTHESIS__
weight2_t w2[96];
#else
weight2_t w2[96] = {1.81250, 0.53125, -0.78125, -0.46875, -0.68750, 0.09375, 1.21875, -0.31250, 0.25000, -0.87500, 0.31250, -0.59375, 0.96875, -0.50000, 0.00000, 0.37500, -0.06250, -1.68750, 1.15625, -0.96875, -0.12500, -0.68750, -0.21875, 0.59375, -1.00000, 0.53125, 0.90625, 0.43750, -1.03125, -1.56250, 1.43750, 0.75000, 0.34375, 0.31250, -0.31250, 1.75000, 0.43750, -0.84375, 0.53125, -0.40625, -1.25000, -0.34375, 0.28125, 0.25000, 0.81250, 0.06250, 0.62500, -1.15625, 0.06250, -0.09375, -0.18750, 0.12500, -0.43750, 1.46875, 1.12500, 0.03125, -0.93750, 0.46875, -1.65625, -0.37500, 0.50000, 0.03125, 1.03125, 0.28125, -0.15625, -1.21875, 0.68750, 0.03125, 0.37500, 0.34375, -1.78125, -0.50000, -1.46875, 1.00000, 0.78125, 0.31250, 0.87500, -0.81250, 0.87500, 1.09375, 1.93750, 1.09375, 0.62500, 0.96875, -0.93750, -1.46875, 1.46875, 0.09375, 1.09375, 0.56250, 1.28125, -0.50000, 0.15625, -0.40625, 0.53125, 0.03125};
#endif

#endif
