//Numpy array shape [3, 8, 8]
//Min -0.726673901081
//Max 1.689759731293
//Number of zeros 0

#ifndef W8_H_
#define W8_H_

#ifndef __SYNTHESIS__
conv1d_15_weight_t w8[192];
#else
conv1d_15_weight_t w8[192] = {-0.3959311247, 0.4108921885, 0.2222348005, 0.3381373286, -0.1255253404, -0.2675673366, 0.2539851665, 0.3469167054, -0.3237980306, 0.3102743030, 0.3758776188, 0.3042494953, 0.6115141511, 0.1296068877, 0.1728278100, -0.1536346078, -0.3405292332, 0.0709097758, -0.4454781413, 0.5637766719, 0.0012853132, -0.0751914978, 0.5217098594, -0.5829122663, 0.0484973267, 0.5510444641, 0.0321007855, 0.2463133186, 0.2835385203, -0.2192814201, -0.2006037831, 0.1860084087, -0.0162814856, -0.0777058750, -0.4425637424, 0.3565943837, 0.1825516671, 0.1717271507, 0.0664974675, 0.3207911253, -0.3430671394, -0.1204128042, 0.2690166533, -0.2081870437, -0.1390445828, 0.0986773744, -0.1158728302, 0.2256782651, 0.0924149677, 0.1937537938, 0.3797341585, -0.2266543806, 0.2500962317, -0.1531100422, -0.1671497822, -0.0801939145, 0.0176319461, 0.0198742263, -0.4013653100, -0.1210553050, 0.3438705504, -0.1164297312, 0.4922771156, 0.3529103994, 0.1914010644, -0.2137943655, -0.2877195776, -0.2030216157, -0.2758774757, -0.3796333969, -0.3927037716, -0.0779382363, 0.1626952440, 0.6080293655, 0.1972965300, 0.2563156188, 0.1948151439, 0.1716163903, 0.3164181113, -0.0465332009, -0.1683019400, 0.4073617160, 0.6841392517, 0.2327228934, -0.0391732343, 0.0889446214, 0.0670939907, 0.1704977453, -0.3645555377, -0.0188837983, 0.4668575227, 0.4235046506, 0.3418949842, 0.1049577966, 0.0855887309, 0.3466490209, 0.2701839209, -0.0725382715, -0.0532245412, -0.2461387813, -0.1648096293, -0.2367104590, -0.0857212767, -0.1073545814, 0.0047050244, -0.2148162574, -0.3266258836, -0.1738213748, -0.5078799129, -0.2900049686, -0.1078698114, 0.3729340136, -0.3071667254, 0.0186364613, -0.3710882068, -0.2930799723, 0.2241838127, -0.1172670424, 0.0914761722, -0.0031252743, -0.3922683001, 0.2953139544, 0.2377506644, 0.3019190431, -0.0662284642, 0.0904257745, 0.3175031543, 0.1285715401, -0.1965383738, -0.0473917574, -0.0867677629, 0.1859012693, 0.1697414815, -0.2286836654, -0.1866184175, -0.2037314773, 0.0590241887, 0.7444666624, 0.6891160011, 0.1406500489, -0.1208657697, -0.3606006801, -0.4640028775, -0.7111079693, -0.1448393911, 0.3142237365, 1.6897597313, 0.3222352564, 0.5925131440, -0.2693741918, 0.3363656700, -0.7266739011, 0.2425724566, 0.4400919378, 0.4719776809, -0.3614268899, -0.0218950119, -0.0561673976, -0.0765945688, 0.0181237683, 0.0096037528, 0.1569210291, -0.0666388571, 0.0780366808, 0.2004596591, -0.1449378282, 0.0665028617, 0.2028166801, -0.2011408061, -0.2843571901, 0.2804858088, 0.0678820983, -0.3349068165, 0.1925248206, -0.2150816619, 0.0856441110, 0.0493619218, -0.1157584637, -0.3556126952, 0.1198688671, 0.3059453070, 0.0906056762, 0.2806616724, -0.1658639610, -0.1785408556, 0.4616298676, 0.2665998042, 0.1538970917, -0.0030750500, -0.2538039684, 0.4280186296, -0.1848039329};
#endif

#endif
