//Numpy array shape [3, 8, 8]
//Min -1.754724025726
//Max 1.550822734833
//Number of zeros 0

#ifndef W4_H_
#define W4_H_

#ifndef __SYNTHESIS__
conv1d_18_weight_t w4[192];
#else
conv1d_18_weight_t w4[192] = {0.6054164767265, 0.6362475156784, -0.8045707345009, -0.3901888132095, 0.5519168376923, -0.5936949253082, 0.7658745050430, 0.3269262313843, 0.2026451379061, 0.2145892530680, -0.2138394862413, -0.0712126716971, 0.2159510254860, 0.0061657652259, 0.0817710086703, 0.0188990831375, 0.2204830944538, -0.2223273515701, -0.0750067979097, 0.2244840413332, 0.2513904571533, 0.3298295736313, -0.2100290060043, 0.0359907448292, 0.3327358365059, 0.0884835422039, 0.1622799187899, -0.1236841827631, -0.1651075035334, -0.2534833550453, -0.2415946125984, 0.1518367081881, -0.0906082019210, 0.1876035481691, -0.4130075275898, 0.0939700827003, -0.0412868820131, -0.1981522738934, 0.0511043258011, -0.3068140745163, 0.2597927153111, 0.1214611083269, -0.2569788694382, 0.1861635297537, 0.2161734700203, 0.1498691588640, 0.1427287310362, -0.2693077921867, -0.1278969943523, 0.2087059766054, -0.0469376519322, 0.3805754184723, -0.0968032553792, 0.1899656951427, -0.1656037569046, -0.0303460042924, -0.3075261712074, 0.2701032757759, -0.3898063600063, -0.4714762270451, 0.0287977252156, -0.3781701922417, 0.0620562434196, 0.0487552732229, 0.3893056511879, 0.1651075035334, -1.7547240257263, -0.2658553421497, 1.5508227348328, -1.1774704456329, 0.8486087322235, 0.5761487483978, 0.0695900171995, -0.2599807083607, -0.2021792680025, 0.3565709292889, 0.1951125860214, 0.4478265047073, 0.1756020188332, 0.1450249850750, -0.3864376246929, 0.2625043988228, 0.1495564281940, -0.5161591768265, 0.0394168794155, 0.6089235544205, 0.1465273201466, 0.3026178777218, -0.0050723007880, 0.0734857097268, 0.2079388648272, 0.1535272002220, 0.0203227046877, 0.3838827013969, -0.1105479747057, 0.0294402483851, -0.3166499137878, -0.1554746478796, -0.1401897221804, 0.3055853247643, -0.0389756113291, 0.0804404467344, 0.3184076547623, -0.1937301754951, 0.0005073733046, 0.2104218453169, -0.4672251343727, -0.0771987140179, -0.0612160786986, -0.1509917229414, 0.0121838236228, 0.0608179979026, -0.0233154017478, 0.3930436074734, -0.5110264420509, 0.0985000729561, 0.5577034354210, -0.4354473352432, 0.1041281372309, 0.4050314426422, 0.3203388154507, 0.4119912683964, 0.2926319539547, 0.2418172061443, -0.0835463851690, -0.2579027116299, 0.0879745408893, -0.1780438572168, 0.3585039973259, 0.5095601081848, -0.4707372784615, -0.0428588390350, 0.2092955857515, -0.9658352136612, 0.5285179615021, 0.2684883177280, 0.1072569787502, -0.2222987264395, -0.0695148557425, -0.1933079361916, 0.0832163989544, -0.1364116072655, -0.0156814921647, -0.2360022217035, -0.2974770963192, 0.0042076022364, -0.7494166493416, 0.0266193188727, -0.1941292881966, -0.1567954421043, 0.2386386841536, 0.5039635896683, 0.3066330254078, -0.0956646054983, 0.2855786085129, 0.2990722656250, -0.2538514137268, -0.0588446520269, 0.2303997278214, 0.1362883746624, 0.3604131042957, -0.0945149064064, -0.1941297203302, -0.2322990149260, -0.3509416878223, 0.3717138171196, -0.0679659023881, 0.3085163831711, -0.1839390099049, 0.4102998077869, -0.4600020945072, 0.1910779476166, 0.1638231128454, -0.4802085161209, 0.0490838959813, 0.4426324367523, -0.2155957520008, 0.2050463408232, 0.2958867251873, -0.0936896055937, 0.4058168232441, 0.1196571364999, 0.1872388422489, 0.2082308381796, -0.0451815389097, -0.0451108328998, -0.0359638147056, 0.2183834463358, 0.1897486895323, -0.2250621318817, 0.2183655053377, -0.2791590094566};
#endif

#endif
