//Numpy array shape [3, 8, 8]
//Min -0.489733189344
//Max 0.441019922495
//Number of zeros 0

#ifndef W6_H_
#define W6_H_

#ifndef __SYNTHESIS__
conv1d_19_weight_t w6[192];
#else
conv1d_19_weight_t w6[192] = {0.1694345623255, -0.0340917967260, -0.3050194680691, -0.0989385694265, -0.0878212973475, 0.0424084439874, 0.0438228659332, -0.2133091539145, 0.0976014062762, -0.4381162524223, 0.0363053604960, -0.4401729702950, -0.2481762617826, 0.0874701365829, -0.0240476932377, -0.2625169754028, 0.0045500178821, 0.3694298863411, 0.0069971201010, 0.1683446019888, 0.2674117982388, -0.2270049452782, -0.2030497938395, -0.1926008909941, -0.1167299225926, 0.1225505769253, 0.0981923714280, 0.2294651716948, 0.3159940242767, 0.3147243857384, 0.3730399906635, 0.3299070596695, 0.3704195618629, -0.2995614707470, 0.2084508538246, -0.0650258436799, -0.1951925605536, -0.1041531860828, -0.0473012924194, -0.0389432013035, 0.0098441857845, 0.1911906301975, -0.0874790400267, 0.3033234179020, 0.2496103197336, 0.0878924354911, 0.3266692161560, 0.4238382875919, 0.1665383428335, -0.4667207300663, -0.0781013444066, -0.2964887320995, -0.2802180945873, -0.4194171726704, -0.1757247298956, 0.1417025476694, -0.0212903916836, -0.4020816683769, -0.1364663988352, -0.2281991392374, -0.2583132982254, -0.3604957163334, -0.1676481068134, 0.1549683958292, 0.2499267756939, -0.0615312457085, 0.0626984089613, -0.2491988390684, -0.2439088970423, -0.2113747298717, 0.2429432868958, -0.1635322868824, 0.3311614096165, -0.4645321369171, -0.0810384750366, -0.2005871534348, 0.1102734059095, -0.2970804572105, -0.1202115267515, -0.0507365278900, -0.4461253285408, 0.4021596610546, 0.1803243309259, -0.1790600270033, -0.0913349092007, 0.2556284964085, 0.0171094238758, 0.4283009469509, -0.1428474336863, 0.0771051123738, -0.2835641801357, 0.1502329856157, 0.2238059788942, -0.2632949054241, -0.0240921974182, -0.1830705404282, -0.1456823647022, -0.3976317346096, -0.4074982702732, 0.2484381347895, -0.1470041126013, -0.2347347736359, -0.3498941957951, -0.0392900258303, -0.1883862912655, 0.0281021352857, 0.1569894999266, 0.1404710710049, 0.0272284634411, 0.4410199224949, 0.3300580382347, -0.1256279945374, 0.0558830834925, -0.0446664765477, -0.3074323832989, 0.0631630420685, -0.0463086180389, -0.0753632783890, -0.3160925805569, -0.0738044679165, 0.2335558831692, 0.0097202947363, 0.0435581393540, -0.3077757358551, -0.2187725305557, 0.2374618649483, -0.0486766025424, -0.3332688212395, 0.0601699762046, -0.4897331893444, -0.1138620153069, 0.1647897064686, 0.0122293299064, 0.1843275874853, 0.0098577989265, 0.1238566488028, 0.1223675161600, -0.1483938694000, -0.0513671971858, -0.1924651712179, -0.2942264080048, 0.1631791889668, 0.0444138459861, -0.0773318037391, -0.4266525208950, 0.4202431440353, 0.0557354539633, -0.2398619800806, 0.0978344157338, 0.2520004808903, 0.3056666851044, -0.1276539862156, -0.3411910831928, 0.1327332407236, 0.0830758064985, 0.1226375773549, -0.2275880575180, 0.0422901138663, 0.2854587733746, -0.1868679374456, -0.2507046163082, -0.0413653478026, 0.1573422849178, -0.0622089430690, 0.0217456612736, 0.1515954732895, -0.1111813262105, 0.0091088311747, -0.0160643011332, -0.0563474074006, -0.0717791467905, -0.1366619616747, 0.1292417943478, -0.0473055206239, 0.3924269378185, 0.2289416491985, -0.1682848632336, -0.1036483049393, 0.0490140356123, -0.2070398926735, -0.1953232586384, -0.3325426578522, 0.0960566774011, -0.2930323481560, 0.2799298465252, -0.4822338819504, -0.0783929452300, -0.2483706623316, -0.1005614399910, -0.3408876955509, -0.3947838842869, -0.4557338058949};
#endif

#endif
