//Numpy array shape [3, 1, 64]
//Min -1.750000000000
//Max 1.812500000000
//Number of zeros 4

#ifndef W2_H_
#define W2_H_

#ifndef __SYNTHESIS__
weight2_t w2[192];
#else
weight2_t w2[192] = {-0.46875, 0.46875, -0.43750, -0.15625, -0.96875, -0.78125, -1.18750, 0.96875, 0.53125, -1.28125, 0.96875, -1.40625, -0.28125, -0.28125, 0.75000, 0.00000, -0.43750, -0.50000, -0.62500, 0.28125, 1.81250, -0.43750, 0.87500, -0.15625, -1.37500, -1.31250, -0.25000, -0.68750, 0.71875, 0.53125, -1.50000, -0.12500, -0.50000, 1.65625, 0.59375, -0.50000, -0.78125, 0.93750, -0.15625, 0.03125, 0.50000, 0.50000, 0.68750, -0.03125, 0.68750, 1.78125, 0.81250, -1.21875, -1.03125, -1.53125, 0.40625, -0.65625, 1.43750, -0.87500, 0.75000, 0.28125, -1.59375, -0.46875, 0.96875, 0.78125, 0.03125, -1.59375, 0.65625, 0.50000, -0.21875, 0.37500, 0.62500, -0.65625, -0.06250, 0.50000, -0.28125, 0.87500, 0.25000, 1.68750, 0.00000, 0.09375, 0.84375, -0.46875, 0.21875, -0.90625, -1.21875, -0.93750, 1.00000, 0.21875, -0.78125, 0.50000, 1.21875, 1.71875, -0.90625, -1.34375, 0.37500, 1.28125, -1.43750, -0.40625, -1.06250, 0.40625, 0.75000, 0.62500, 0.59375, -1.00000, -0.56250, -0.84375, 0.31250, 0.96875, 0.21875, 0.00000, 0.46875, 0.43750, 0.75000, -0.71875, 0.62500, -1.06250, 0.18750, -0.09375, 0.84375, 0.71875, -0.62500, 0.46875, -0.43750, 0.81250, -0.84375, 0.03125, -0.50000, 0.46875, -0.81250, 0.62500, 0.31250, 0.03125, 1.59375, -0.43750, 0.59375, 0.93750, -1.56250, 0.21875, 0.25000, -1.28125, 0.03125, -0.15625, 0.34375, 1.62500, 0.25000, -0.68750, -0.18750, -0.40625, 0.59375, -1.21875, 0.12500, -0.81250, -1.68750, -1.75000, -0.15625, 0.00000, -0.62500, 0.62500, 0.50000, -0.03125, -0.90625, 1.18750, 0.78125, -0.21875, -1.06250, -0.43750, -0.03125, -0.50000, -0.37500, 1.18750, -0.75000, -0.87500, 0.25000, 0.15625, 0.40625, -0.43750, 1.31250, -0.40625, -0.28125, -0.40625, -0.90625, 0.15625, -0.65625, -0.65625, 1.68750, -0.65625, -0.81250, 1.31250, -1.00000, 0.68750, -0.96875, 0.50000, 0.21875, 0.06250, 0.90625, 0.68750};
#endif

#endif
