//Numpy array shape [3, 1, 32]
//Min -1.875000000000
//Max 1.843750000000
//Number of zeros 1

#ifndef W2_H_
#define W2_H_

#ifndef __SYNTHESIS__
weight2_t w2[96];
#else
weight2_t w2[96] = {-1.12500, -0.53125, -0.75000, -1.65625, -0.59375, -0.96875, 1.21875, 0.37500, 1.00000, -0.40625, -0.46875, -0.31250, -0.03125, 0.37500, -1.43750, 0.25000, 1.84375, -1.46875, -0.87500, 0.12500, 1.03125, 0.56250, 0.37500, -0.56250, 0.28125, 0.03125, -0.46875, -0.18750, -1.12500, 0.84375, -0.75000, -1.25000, 0.93750, 0.06250, 1.40625, 1.06250, -0.71875, 0.40625, -1.53125, 0.50000, 1.18750, 0.37500, -0.53125, -0.06250, 1.50000, 0.43750, 1.00000, -1.34375, -0.50000, -0.84375, 0.25000, 1.12500, -1.12500, -0.37500, 0.31250, 1.06250, 0.62500, -0.12500, 1.15625, -0.06250, -0.56250, 0.65625, 1.28125, -0.96875, 1.15625, -1.09375, 0.56250, -0.06250, -0.90625, 1.18750, 0.09375, 0.65625, 0.56250, 0.00000, 0.06250, -0.40625, -1.40625, 1.50000, -0.75000, -0.96875, 0.37500, 0.31250, -0.65625, 0.84375, 1.37500, 0.84375, 1.00000, -1.87500, -0.21875, -1.46875, -0.59375, 0.62500, -1.28125, -1.81250, -1.31250, -0.87500};
#endif

#endif
