//Numpy array shape [3, 8, 8]
//Min -0.489733189344
//Max 0.441019922495
//Number of zeros 0

#ifndef W6_H_
#define W6_H_

#ifndef __SYNTHESIS__
conv1d_19_weight_t w6[192];
#else
conv1d_19_weight_t w6[192] = {0.169434562325478, -0.034091796725988, -0.305019468069077, -0.098938569426537, -0.087821297347546, 0.042408443987370, 0.043822865933180, -0.213309153914452, 0.097601406276226, -0.438116252422333, 0.036305360496044, -0.440172970294952, -0.248176261782646, 0.087470136582851, -0.024047693237662, -0.262516975402832, 0.004550017882138, 0.369429886341095, 0.006997120101005, 0.168344601988792, 0.267411798238754, -0.227004945278168, -0.203049793839455, -0.192600890994072, -0.116729922592640, 0.122550576925278, 0.098192371428013, 0.229465171694756, 0.315994024276733, 0.314724385738373, 0.373039990663528, 0.329907059669495, 0.370419561862946, -0.299561470746994, 0.208450853824615, -0.065025843679905, -0.195192560553551, -0.104153186082840, -0.047301292419434, -0.038943201303482, 0.009844185784459, 0.191190630197525, -0.087479040026665, 0.303323417901993, 0.249610319733620, 0.087892435491085, 0.326669216156006, 0.423838287591934, 0.166538342833519, -0.466720730066299, -0.078101344406605, -0.296488732099533, -0.280218094587326, -0.419417172670364, -0.175724729895592, 0.141702547669411, -0.021290391683578, -0.402081668376923, -0.136466398835182, -0.228199139237404, -0.258313298225403, -0.360495716333389, -0.167648106813431, 0.154968395829201, 0.249926775693893, -0.061531245708466, 0.062698408961296, -0.249198839068413, -0.243908897042274, -0.211374729871750, 0.242943286895752, -0.163532286882401, 0.331161409616470, -0.464532136917114, -0.081038475036621, -0.200587153434753, 0.110273405909538, -0.297080457210541, -0.120211526751518, -0.050736527889967, -0.446125328540802, 0.402159661054611, 0.180324330925941, -0.179060027003288, -0.091334909200668, 0.255628496408463, 0.017109423875809, 0.428300946950912, -0.142847433686256, 0.077105112373829, -0.283564180135727, 0.150232985615730, 0.223805978894234, -0.263294905424118, -0.024092197418213, -0.183070540428162, -0.145682364702225, -0.397631734609604, -0.407498270273209, 0.248438134789467, -0.147004112601280, -0.234734773635864, -0.349894195795059, -0.039290025830269, -0.188386291265488, 0.028102135285735, 0.156989499926567, 0.140471071004868, 0.027228463441133, 0.441019922494888, 0.330058038234711, -0.125627994537354, 0.055883083492517, -0.044666476547718, -0.307432383298874, 0.063163042068481, -0.046308618038893, -0.075363278388977, -0.316092580556870, -0.073804467916489, 0.233555883169174, 0.009720294736326, 0.043558139353991, -0.307775735855103, -0.218772530555725, 0.237461864948273, -0.048676602542400, -0.333268821239471, 0.060169976204634, -0.489733189344406, -0.113862015306950, 0.164789706468582, 0.012229329906404, 0.184327587485313, 0.009857798926532, 0.123856648802757, 0.122367516160011, -0.148393869400024, -0.051367197185755, -0.192465171217918, -0.294226408004761, 0.163179188966751, 0.044413845986128, -0.077331803739071, -0.426652520895004, 0.420243144035339, 0.055735453963280, -0.239861980080605, 0.097834415733814, 0.252000480890274, 0.305666685104370, -0.127653986215591, -0.341191083192825, 0.132733240723610, 0.083075806498528, 0.122637577354908, -0.227588057518005, 0.042290113866329, 0.285458773374557, -0.186867937445641, -0.250704616308212, -0.041365347802639, 0.157342284917831, -0.062208943068981, 0.021745661273599, 0.151595473289490, -0.111181326210499, 0.009108831174672, -0.016064301133156, -0.056347407400608, -0.071779146790504, -0.136661961674690, 0.129241794347763, -0.047305520623922, 0.392426937818527, 0.228941649198532, -0.168284863233566, -0.103648304939270, 0.049014035612345, -0.207039892673492, -0.195323258638382, -0.332542657852173, 0.096056677401066, -0.293032348155975, 0.279929846525192, -0.482233881950378, -0.078392945230007, -0.248370662331581, -0.100561439990997, -0.340887695550919, -0.394783884286880, -0.455733805894852};
#endif

#endif
