//Numpy array shape [3, 8, 8]
//Min -1.754724025726
//Max 1.550822734833
//Number of zeros 0

#ifndef W4_H_
#define W4_H_

#ifndef __SYNTHESIS__
conv1d_18_weight_t w4[192];
#else
conv1d_18_weight_t w4[192] = {0.60541648, 0.63624752, -0.80457073, -0.39018881, 0.55191684, -0.59369493, 0.76587451, 0.32692623, 0.20264514, 0.21458925, -0.21383949, -0.07121267, 0.21595103, 0.00616577, 0.08177101, 0.01889908, 0.22048309, -0.22232735, -0.07500680, 0.22448404, 0.25139046, 0.32982957, -0.21002901, 0.03599074, 0.33273584, 0.08848354, 0.16227992, -0.12368418, -0.16510750, -0.25348336, -0.24159461, 0.15183671, -0.09060820, 0.18760355, -0.41300753, 0.09397008, -0.04128688, -0.19815227, 0.05110433, -0.30681407, 0.25979272, 0.12146111, -0.25697887, 0.18616353, 0.21617347, 0.14986916, 0.14272873, -0.26930779, -0.12789699, 0.20870598, -0.04693765, 0.38057542, -0.09680326, 0.18996570, -0.16560376, -0.03034600, -0.30752617, 0.27010328, -0.38980636, -0.47147623, 0.02879773, -0.37817019, 0.06205624, 0.04875527, 0.38930565, 0.16510750, -1.75472403, -0.26585534, 1.55082273, -1.17747045, 0.84860873, 0.57614875, 0.06959002, -0.25998071, -0.20217927, 0.35657093, 0.19511259, 0.44782650, 0.17560202, 0.14502499, -0.38643762, 0.26250440, 0.14955643, -0.51615918, 0.03941688, 0.60892355, 0.14652732, 0.30261788, -0.00507230, 0.07348571, 0.20793886, 0.15352720, 0.02032270, 0.38388270, -0.11054797, 0.02944025, -0.31664991, -0.15547465, -0.14018972, 0.30558532, -0.03897561, 0.08044045, 0.31840765, -0.19373018, 0.00050737, 0.21042185, -0.46722513, -0.07719871, -0.06121608, -0.15099172, 0.01218382, 0.06081800, -0.02331540, 0.39304361, -0.51102644, 0.09850007, 0.55770344, -0.43544734, 0.10412814, 0.40503144, 0.32033882, 0.41199127, 0.29263195, 0.24181721, -0.08354639, -0.25790271, 0.08797454, -0.17804386, 0.35850400, 0.50956011, -0.47073728, -0.04285884, 0.20929559, -0.96583521, 0.52851796, 0.26848832, 0.10725698, -0.22229873, -0.06951486, -0.19330794, 0.08321640, -0.13641161, -0.01568149, -0.23600222, -0.29747710, 0.00420760, -0.74941665, 0.02661932, -0.19412929, -0.15679544, 0.23863868, 0.50396359, 0.30663303, -0.09566461, 0.28557861, 0.29907227, -0.25385141, -0.05884465, 0.23039973, 0.13628837, 0.36041310, -0.09451491, -0.19412972, -0.23229901, -0.35094169, 0.37171382, -0.06796590, 0.30851638, -0.18393901, 0.41029981, -0.46000209, 0.19107795, 0.16382311, -0.48020852, 0.04908390, 0.44263244, -0.21559575, 0.20504634, 0.29588673, -0.09368961, 0.40581682, 0.11965714, 0.18723884, 0.20823084, -0.04518154, -0.04511083, -0.03596381, 0.21838345, 0.18974869, -0.22506213, 0.21836551, -0.27915901};
#endif

#endif
