//Numpy array shape [3, 8, 8]
//Min -0.489733189344
//Max 0.441019922495
//Number of zeros 0

#ifndef W6_H_
#define W6_H_

#ifndef __SYNTHESIS__
conv1d_19_weight_t w6[192];
#else
conv1d_19_weight_t w6[192] = {0.16943456, -0.03409180, -0.30501947, -0.09893857, -0.08782130, 0.04240844, 0.04382287, -0.21330915, 0.09760141, -0.43811625, 0.03630536, -0.44017297, -0.24817626, 0.08747014, -0.02404769, -0.26251698, 0.00455002, 0.36942989, 0.00699712, 0.16834460, 0.26741180, -0.22700495, -0.20304979, -0.19260089, -0.11672992, 0.12255058, 0.09819237, 0.22946517, 0.31599402, 0.31472439, 0.37303999, 0.32990706, 0.37041956, -0.29956147, 0.20845085, -0.06502584, -0.19519256, -0.10415319, -0.04730129, -0.03894320, 0.00984419, 0.19119063, -0.08747904, 0.30332342, 0.24961032, 0.08789244, 0.32666922, 0.42383829, 0.16653834, -0.46672073, -0.07810134, -0.29648873, -0.28021809, -0.41941717, -0.17572473, 0.14170255, -0.02129039, -0.40208167, -0.13646640, -0.22819914, -0.25831330, -0.36049572, -0.16764811, 0.15496840, 0.24992678, -0.06153125, 0.06269841, -0.24919884, -0.24390890, -0.21137473, 0.24294329, -0.16353229, 0.33116141, -0.46453214, -0.08103848, -0.20058715, 0.11027341, -0.29708046, -0.12021153, -0.05073653, -0.44612533, 0.40215966, 0.18032433, -0.17906003, -0.09133491, 0.25562850, 0.01710942, 0.42830095, -0.14284743, 0.07710511, -0.28356418, 0.15023299, 0.22380598, -0.26329491, -0.02409220, -0.18307054, -0.14568236, -0.39763173, -0.40749827, 0.24843813, -0.14700411, -0.23473477, -0.34989420, -0.03929003, -0.18838629, 0.02810214, 0.15698950, 0.14047107, 0.02722846, 0.44101992, 0.33005804, -0.12562799, 0.05588308, -0.04466648, -0.30743238, 0.06316304, -0.04630862, -0.07536328, -0.31609258, -0.07380447, 0.23355588, 0.00972029, 0.04355814, -0.30777574, -0.21877253, 0.23746186, -0.04867660, -0.33326882, 0.06016998, -0.48973319, -0.11386202, 0.16478971, 0.01222933, 0.18432759, 0.00985780, 0.12385665, 0.12236752, -0.14839387, -0.05136720, -0.19246517, -0.29422641, 0.16317919, 0.04441385, -0.07733180, -0.42665252, 0.42024314, 0.05573545, -0.23986198, 0.09783442, 0.25200048, 0.30566669, -0.12765399, -0.34119108, 0.13273324, 0.08307581, 0.12263758, -0.22758806, 0.04229011, 0.28545877, -0.18686794, -0.25070462, -0.04136535, 0.15734228, -0.06220894, 0.02174566, 0.15159547, -0.11118133, 0.00910883, -0.01606430, -0.05634741, -0.07177915, -0.13666196, 0.12924179, -0.04730552, 0.39242694, 0.22894165, -0.16828486, -0.10364830, 0.04901404, -0.20703989, -0.19532326, -0.33254266, 0.09605668, -0.29303235, 0.27992985, -0.48223388, -0.07839295, -0.24837066, -0.10056144, -0.34088770, -0.39478388, -0.45573381};
#endif

#endif
