//Numpy array shape [3, 8, 8]
//Min -0.726673901081
//Max 1.689759731293
//Number of zeros 0

#ifndef W8_H_
#define W8_H_

#ifndef __SYNTHESIS__
conv1d_15_weight_t w8[192];
#else
conv1d_15_weight_t w8[192] = {-0.39593112, 0.41089219, 0.22223480, 0.33813733, -0.12552534, -0.26756734, 0.25398517, 0.34691671, -0.32379803, 0.31027430, 0.37587762, 0.30424950, 0.61151415, 0.12960689, 0.17282781, -0.15363461, -0.34052923, 0.07090978, -0.44547814, 0.56377667, 0.00128531, -0.07519150, 0.52170986, -0.58291227, 0.04849733, 0.55104446, 0.03210079, 0.24631332, 0.28353852, -0.21928142, -0.20060378, 0.18600841, -0.01628149, -0.07770588, -0.44256374, 0.35659438, 0.18255167, 0.17172715, 0.06649747, 0.32079113, -0.34306714, -0.12041280, 0.26901665, -0.20818704, -0.13904458, 0.09867737, -0.11587283, 0.22567827, 0.09241497, 0.19375379, 0.37973416, -0.22665438, 0.25009623, -0.15311004, -0.16714978, -0.08019391, 0.01763195, 0.01987423, -0.40136531, -0.12105531, 0.34387055, -0.11642973, 0.49227712, 0.35291040, 0.19140106, -0.21379437, -0.28771958, -0.20302162, -0.27587748, -0.37963340, -0.39270377, -0.07793824, 0.16269524, 0.60802937, 0.19729653, 0.25631562, 0.19481514, 0.17161639, 0.31641811, -0.04653320, -0.16830194, 0.40736172, 0.68413925, 0.23272289, -0.03917323, 0.08894462, 0.06709399, 0.17049775, -0.36455554, -0.01888380, 0.46685752, 0.42350465, 0.34189498, 0.10495780, 0.08558873, 0.34664902, 0.27018392, -0.07253827, -0.05322454, -0.24613878, -0.16480963, -0.23671046, -0.08572128, -0.10735458, 0.00470502, -0.21481626, -0.32662588, -0.17382137, -0.50787991, -0.29000497, -0.10786981, 0.37293401, -0.30716673, 0.01863646, -0.37108821, -0.29307997, 0.22418381, -0.11726704, 0.09147617, -0.00312527, -0.39226830, 0.29531395, 0.23775066, 0.30191904, -0.06622846, 0.09042577, 0.31750315, 0.12857154, -0.19653837, -0.04739176, -0.08676776, 0.18590127, 0.16974148, -0.22868367, -0.18661842, -0.20373148, 0.05902419, 0.74446666, 0.68911600, 0.14065005, -0.12086577, -0.36060068, -0.46400288, -0.71110797, -0.14483939, 0.31422374, 1.68975973, 0.32223526, 0.59251314, -0.26937419, 0.33636567, -0.72667390, 0.24257246, 0.44009194, 0.47197768, -0.36142689, -0.02189501, -0.05616740, -0.07659457, 0.01812377, 0.00960375, 0.15692103, -0.06663886, 0.07803668, 0.20045966, -0.14493783, 0.06650286, 0.20281668, -0.20114081, -0.28435719, 0.28048581, 0.06788210, -0.33490682, 0.19252482, -0.21508166, 0.08564411, 0.04936192, -0.11575846, -0.35561270, 0.11986887, 0.30594531, 0.09060568, 0.28066167, -0.16586396, -0.17854086, 0.46162987, 0.26659980, 0.15389709, -0.00307505, -0.25380397, 0.42801863, -0.18480393};
#endif

#endif
