//Numpy array shape [3, 1, 32]
//Min -1.781250000000
//Max 1.843750000000
//Number of zeros 2

#ifndef W2_H_
#define W2_H_

#ifndef __SYNTHESIS__
weight2_t w2[96];
#else
weight2_t w2[96] = {0.90625, -0.53125, -0.40625, -1.68750, -0.31250, -0.56250, 0.18750, 1.65625, -0.40625, 0.40625, -0.18750, 0.50000, 0.00000, -0.21875, -0.59375, -0.68750, -0.31250, -0.87500, -1.15625, 0.28125, 0.59375, -0.12500, -0.75000, -0.65625, 0.62500, -1.06250, -0.25000, -1.53125, 0.81250, 0.59375, 0.03125, -1.15625, -0.96875, -1.50000, 1.25000, 0.00000, -0.31250, 0.78125, 0.93750, -0.31250, 0.03125, 0.09375, -1.40625, 0.46875, 0.09375, -0.68750, 0.43750, 0.65625, -0.75000, -0.12500, -0.43750, -1.12500, 0.71875, -0.31250, 0.06250, -0.90625, -0.25000, 0.78125, -1.03125, -1.68750, 0.62500, -0.40625, 0.43750, -0.71875, 0.81250, -0.93750, -0.93750, -0.81250, 0.71875, 0.93750, -0.87500, 0.65625, -0.09375, 0.71875, -0.34375, -1.78125, -1.25000, 0.12500, -1.31250, -0.15625, 0.21875, -0.62500, -0.78125, 0.25000, 0.46875, 0.62500, -0.87500, 0.78125, -0.50000, 0.78125, 0.40625, 0.59375, 1.84375, -0.12500, 1.59375, -0.40625};
#endif

#endif
