//Numpy array shape [3, 8, 8]
//Min -1.754724025726
//Max 1.550822734833
//Number of zeros 0

#ifndef W4_H_
#define W4_H_

#ifndef __SYNTHESIS__
conv1d_18_weight_t w4[192];
#else
conv1d_18_weight_t w4[192] = {0.605416476727, 0.636247515678, -0.804570734501, -0.390188813210, 0.551916837692, -0.593694925308, 0.765874505043, 0.326926231384, 0.202645137906, 0.214589253068, -0.213839486241, -0.071212671697, 0.215951025486, 0.006165765226, 0.081771008670, 0.018899083138, 0.220483094454, -0.222327351570, -0.075006797910, 0.224484041333, 0.251390457153, 0.329829573631, -0.210029006004, 0.035990744829, 0.332735836506, 0.088483542204, 0.162279918790, -0.123684182763, -0.165107503533, -0.253483355045, -0.241594612598, 0.151836708188, -0.090608201921, 0.187603548169, -0.413007527590, 0.093970082700, -0.041286882013, -0.198152273893, 0.051104325801, -0.306814074516, 0.259792715311, 0.121461108327, -0.256978869438, 0.186163529754, 0.216173470020, 0.149869158864, 0.142728731036, -0.269307792187, -0.127896994352, 0.208705976605, -0.046937651932, 0.380575418472, -0.096803255379, 0.189965695143, -0.165603756905, -0.030346004292, -0.307526171207, 0.270103275776, -0.389806360006, -0.471476227045, 0.028797725216, -0.378170192242, 0.062056243420, 0.048755273223, 0.389305651188, 0.165107503533, -1.754724025726, -0.265855342150, 1.550822734833, -1.177470445633, 0.848608732224, 0.576148748398, 0.069590017200, -0.259980708361, -0.202179268003, 0.356570929289, 0.195112586021, 0.447826504707, 0.175602018833, 0.145024985075, -0.386437624693, 0.262504398823, 0.149556428194, -0.516159176826, 0.039416879416, 0.608923554420, 0.146527320147, 0.302617877722, -0.005072300788, 0.073485709727, 0.207938864827, 0.153527200222, 0.020322704688, 0.383882701397, -0.110547974706, 0.029440248385, -0.316649913788, -0.155474647880, -0.140189722180, 0.305585324764, -0.038975611329, 0.080440446734, 0.318407654762, -0.193730175495, 0.000507373305, 0.210421845317, -0.467225134373, -0.077198714018, -0.061216078699, -0.150991722941, 0.012183823623, 0.060817997903, -0.023315401748, 0.393043607473, -0.511026442051, 0.098500072956, 0.557703435421, -0.435447335243, 0.104128137231, 0.405031442642, 0.320338815451, 0.411991268396, 0.292631953955, 0.241817206144, -0.083546385169, -0.257902711630, 0.087974540889, -0.178043857217, 0.358503997326, 0.509560108185, -0.470737278461, -0.042858839035, 0.209295585752, -0.965835213661, 0.528517961502, 0.268488317728, 0.107256978750, -0.222298726439, -0.069514855742, -0.193307936192, 0.083216398954, -0.136411607265, -0.015681492165, -0.236002221704, -0.297477096319, 0.004207602236, -0.749416649342, 0.026619318873, -0.194129288197, -0.156795442104, 0.238638684154, 0.503963589668, 0.306633025408, -0.095664605498, 0.285578608513, 0.299072265625, -0.253851413727, -0.058844652027, 0.230399727821, 0.136288374662, 0.360413104296, -0.094514906406, -0.194129720330, -0.232299014926, -0.350941687822, 0.371713817120, -0.067965902388, 0.308516383171, -0.183939009905, 0.410299807787, -0.460002094507, 0.191077947617, 0.163823112845, -0.480208516121, 0.049083895981, 0.442632436752, -0.215595752001, 0.205046340823, 0.295886725187, -0.093689605594, 0.405816823244, 0.119657136500, 0.187238842249, 0.208230838180, -0.045181538910, -0.045110832900, -0.035963814706, 0.218383446336, 0.189748689532, -0.225062131882, 0.218365505338, -0.279159009457};
#endif

#endif
