//Numpy array shape [3, 8, 8]
//Min -0.750000000000
//Max 0.781250000000
//Number of zeros 8

#ifndef W5_H_
#define W5_H_

#ifndef __SYNTHESIS__
weight5_t w5[192];
#else
weight5_t w5[192] = {0.28125, -0.46875, -0.71875, 0.12500, -0.03125, 0.59375, -0.59375, 0.25000, 0.37500, 0.28125, 0.18750, 0.34375, 0.15625, 0.68750, 0.43750, -0.06250, -0.21875, 0.15625, 0.06250, 0.15625, 0.18750, 0.34375, -0.03125, 0.34375, -0.34375, -0.31250, 0.03125, 0.00000, -0.34375, -0.12500, -0.46875, 0.12500, 0.00000, 0.37500, 0.21875, 0.65625, 0.03125, 0.28125, -0.06250, -0.06250, -0.28125, -0.21875, -0.06250, 0.28125, 0.15625, -0.03125, 0.28125, 0.43750, 0.03125, -0.31250, 0.09375, -0.15625, -0.06250, 0.12500, 0.25000, 0.50000, -0.06250, -0.37500, 0.15625, 0.18750, -0.28125, 0.03125, 0.28125, -0.03125, -0.50000, -0.28125, -0.37500, 0.31250, -0.15625, 0.12500, 0.15625, 0.06250, 0.65625, -0.09375, -0.15625, 0.31250, -0.40625, 0.15625, 0.15625, -0.43750, 0.28125, 0.09375, -0.62500, 0.28125, -0.46875, 0.09375, 0.15625, 0.00000, -0.21875, -0.68750, 0.06250, -0.12500, 0.15625, 0.59375, 0.46875, -0.25000, -0.18750, 0.15625, -0.15625, 0.62500, -0.25000, 0.28125, 0.15625, 0.00000, 0.40625, 0.15625, 0.31250, -0.25000, 0.18750, 0.03125, 0.31250, 0.71875, -0.21875, -0.62500, 0.37500, -0.09375, 0.12500, 0.18750, -0.15625, -0.15625, 0.59375, -0.25000, -0.06250, -0.15625, -0.03125, -0.21875, 0.15625, -0.50000, -0.59375, 0.18750, 0.18750, 0.00000, -0.06250, 0.21875, 0.00000, -0.03125, 0.21875, -0.15625, 0.21875, -0.03125, -0.37500, 0.15625, -0.21875, -0.50000, 0.40625, -0.03125, 0.15625, 0.34375, -0.31250, -0.06250, 0.12500, -0.21875, 0.15625, -0.71875, -0.34375, 0.03125, 0.12500, 0.00000, 0.03125, 0.78125, -0.03125, -0.15625, -0.03125, 0.03125, -0.75000, -0.03125, 0.03125, -0.18750, -0.46875, -0.15625, -0.03125, -0.31250, -0.21875, 0.00000, 0.03125, -0.31250, 0.50000, 0.28125, -0.03125, 0.12500, -0.12500, -0.25000, -0.40625, -0.31250, 0.21875, 0.56250, -0.37500, -0.09375, 0.37500, -0.12500, 0.09375, 0.40625};
#endif

#endif
