//Numpy array shape [3, 8, 8]
//Min -0.489733189344
//Max 0.441019922495
//Number of zeros 0

#ifndef W6_H_
#define W6_H_

#ifndef __SYNTHESIS__
conv1d_19_weight_t w6[192];
#else
conv1d_19_weight_t w6[192] = {0.1694345623, -0.0340917967, -0.3050194681, -0.0989385694, -0.0878212973, 0.0424084440, 0.0438228659, -0.2133091539, 0.0976014063, -0.4381162524, 0.0363053605, -0.4401729703, -0.2481762618, 0.0874701366, -0.0240476932, -0.2625169754, 0.0045500179, 0.3694298863, 0.0069971201, 0.1683446020, 0.2674117982, -0.2270049453, -0.2030497938, -0.1926008910, -0.1167299226, 0.1225505769, 0.0981923714, 0.2294651717, 0.3159940243, 0.3147243857, 0.3730399907, 0.3299070597, 0.3704195619, -0.2995614707, 0.2084508538, -0.0650258437, -0.1951925606, -0.1041531861, -0.0473012924, -0.0389432013, 0.0098441858, 0.1911906302, -0.0874790400, 0.3033234179, 0.2496103197, 0.0878924355, 0.3266692162, 0.4238382876, 0.1665383428, -0.4667207301, -0.0781013444, -0.2964887321, -0.2802180946, -0.4194171727, -0.1757247299, 0.1417025477, -0.0212903917, -0.4020816684, -0.1364663988, -0.2281991392, -0.2583132982, -0.3604957163, -0.1676481068, 0.1549683958, 0.2499267757, -0.0615312457, 0.0626984090, -0.2491988391, -0.2439088970, -0.2113747299, 0.2429432869, -0.1635322869, 0.3311614096, -0.4645321369, -0.0810384750, -0.2005871534, 0.1102734059, -0.2970804572, -0.1202115268, -0.0507365279, -0.4461253285, 0.4021596611, 0.1803243309, -0.1790600270, -0.0913349092, 0.2556284964, 0.0171094239, 0.4283009470, -0.1428474337, 0.0771051124, -0.2835641801, 0.1502329856, 0.2238059789, -0.2632949054, -0.0240921974, -0.1830705404, -0.1456823647, -0.3976317346, -0.4074982703, 0.2484381348, -0.1470041126, -0.2347347736, -0.3498941958, -0.0392900258, -0.1883862913, 0.0281021353, 0.1569894999, 0.1404710710, 0.0272284634, 0.4410199225, 0.3300580382, -0.1256279945, 0.0558830835, -0.0446664765, -0.3074323833, 0.0631630421, -0.0463086180, -0.0753632784, -0.3160925806, -0.0738044679, 0.2335558832, 0.0097202947, 0.0435581394, -0.3077757359, -0.2187725306, 0.2374618649, -0.0486766025, -0.3332688212, 0.0601699762, -0.4897331893, -0.1138620153, 0.1647897065, 0.0122293299, 0.1843275875, 0.0098577989, 0.1238566488, 0.1223675162, -0.1483938694, -0.0513671972, -0.1924651712, -0.2942264080, 0.1631791890, 0.0444138460, -0.0773318037, -0.4266525209, 0.4202431440, 0.0557354540, -0.2398619801, 0.0978344157, 0.2520004809, 0.3056666851, -0.1276539862, -0.3411910832, 0.1327332407, 0.0830758065, 0.1226375774, -0.2275880575, 0.0422901139, 0.2854587734, -0.1868679374, -0.2507046163, -0.0413653478, 0.1573422849, -0.0622089431, 0.0217456613, 0.1515954733, -0.1111813262, 0.0091088312, -0.0160643011, -0.0563474074, -0.0717791468, -0.1366619617, 0.1292417943, -0.0473055206, 0.3924269378, 0.2289416492, -0.1682848632, -0.1036483049, 0.0490140356, -0.2070398927, -0.1953232586, -0.3325426579, 0.0960566774, -0.2930323482, 0.2799298465, -0.4822338820, -0.0783929452, -0.2483706623, -0.1005614400, -0.3408876956, -0.3947838843, -0.4557338059};
#endif

#endif
