//Numpy array shape [3, 8, 8]
//Min -1.754724025726
//Max 1.550822734833
//Number of zeros 0

#ifndef W4_H_
#define W4_H_

#ifndef __SYNTHESIS__
conv1d_18_weight_t w4[192];
#else
conv1d_18_weight_t w4[192] = {0.6054164767, 0.6362475157, -0.8045707345, -0.3901888132, 0.5519168377, -0.5936949253, 0.7658745050, 0.3269262314, 0.2026451379, 0.2145892531, -0.2138394862, -0.0712126717, 0.2159510255, 0.0061657652, 0.0817710087, 0.0188990831, 0.2204830945, -0.2223273516, -0.0750067979, 0.2244840413, 0.2513904572, 0.3298295736, -0.2100290060, 0.0359907448, 0.3327358365, 0.0884835422, 0.1622799188, -0.1236841828, -0.1651075035, -0.2534833550, -0.2415946126, 0.1518367082, -0.0906082019, 0.1876035482, -0.4130075276, 0.0939700827, -0.0412868820, -0.1981522739, 0.0511043258, -0.3068140745, 0.2597927153, 0.1214611083, -0.2569788694, 0.1861635298, 0.2161734700, 0.1498691589, 0.1427287310, -0.2693077922, -0.1278969944, 0.2087059766, -0.0469376519, 0.3805754185, -0.0968032554, 0.1899656951, -0.1656037569, -0.0303460043, -0.3075261712, 0.2701032758, -0.3898063600, -0.4714762270, 0.0287977252, -0.3781701922, 0.0620562434, 0.0487552732, 0.3893056512, 0.1651075035, -1.7547240257, -0.2658553421, 1.5508227348, -1.1774704456, 0.8486087322, 0.5761487484, 0.0695900172, -0.2599807084, -0.2021792680, 0.3565709293, 0.1951125860, 0.4478265047, 0.1756020188, 0.1450249851, -0.3864376247, 0.2625043988, 0.1495564282, -0.5161591768, 0.0394168794, 0.6089235544, 0.1465273201, 0.3026178777, -0.0050723008, 0.0734857097, 0.2079388648, 0.1535272002, 0.0203227047, 0.3838827014, -0.1105479747, 0.0294402484, -0.3166499138, -0.1554746479, -0.1401897222, 0.3055853248, -0.0389756113, 0.0804404467, 0.3184076548, -0.1937301755, 0.0005073733, 0.2104218453, -0.4672251344, -0.0771987140, -0.0612160787, -0.1509917229, 0.0121838236, 0.0608179979, -0.0233154017, 0.3930436075, -0.5110264421, 0.0985000730, 0.5577034354, -0.4354473352, 0.1041281372, 0.4050314426, 0.3203388155, 0.4119912684, 0.2926319540, 0.2418172061, -0.0835463852, -0.2579027116, 0.0879745409, -0.1780438572, 0.3585039973, 0.5095601082, -0.4707372785, -0.0428588390, 0.2092955858, -0.9658352137, 0.5285179615, 0.2684883177, 0.1072569788, -0.2222987264, -0.0695148557, -0.1933079362, 0.0832163990, -0.1364116073, -0.0156814922, -0.2360022217, -0.2974770963, 0.0042076022, -0.7494166493, 0.0266193189, -0.1941292882, -0.1567954421, 0.2386386842, 0.5039635897, 0.3066330254, -0.0956646055, 0.2855786085, 0.2990722656, -0.2538514137, -0.0588446520, 0.2303997278, 0.1362883747, 0.3604131043, -0.0945149064, -0.1941297203, -0.2322990149, -0.3509416878, 0.3717138171, -0.0679659024, 0.3085163832, -0.1839390099, 0.4102998078, -0.4600020945, 0.1910779476, 0.1638231128, -0.4802085161, 0.0490838960, 0.4426324368, -0.2155957520, 0.2050463408, 0.2958867252, -0.0936896056, 0.4058168232, 0.1196571365, 0.1872388422, 0.2082308382, -0.0451815389, -0.0451108329, -0.0359638147, 0.2183834463, 0.1897486895, -0.2250621319, 0.2183655053, -0.2791590095};
#endif

#endif
