//Numpy array shape [3, 1, 32]
//Min -1.718750000000
//Max 1.562500000000
//Number of zeros 0

#ifndef W2_H_
#define W2_H_

#ifndef __SYNTHESIS__
weight2_t w2[96];
#else
weight2_t w2[96] = {-0.12500, 0.09375, 0.81250, -0.90625, -0.43750, 1.00000, -0.40625, -0.37500, -0.46875, -0.68750, 0.56250, -0.12500, -0.43750, 0.25000, 0.25000, -0.75000, -0.43750, -0.78125, 0.09375, -0.09375, -0.62500, 0.40625, -0.37500, 0.34375, 0.15625, -0.21875, 0.37500, -1.50000, -0.90625, -0.84375, -1.65625, -0.56250, 0.21875, 0.56250, 0.46875, 0.65625, -0.21875, 0.09375, -1.06250, -0.62500, 0.09375, 0.18750, -0.81250, -0.65625, -1.50000, 0.65625, -1.50000, 0.68750, -0.59375, -0.34375, 0.03125, 1.56250, 0.06250, -0.59375, 1.15625, 0.21875, -0.65625, -0.62500, 0.90625, -0.71875, -0.03125, 0.75000, 0.06250, 1.09375, -0.78125, 1.18750, 0.50000, 0.37500, 0.90625, 0.15625, 0.56250, -1.00000, -1.21875, 0.34375, -0.90625, -0.28125, -0.21875, 0.62500, -1.00000, -0.15625, 0.25000, 1.03125, -1.25000, 0.43750, 0.28125, -0.56250, -0.40625, -0.03125, -0.90625, -0.62500, -0.15625, 0.65625, -1.71875, 0.37500, 0.12500, -0.50000};
#endif

#endif
