//Numpy array shape [3, 8, 8]
//Min -1.754724025726
//Max 1.550822734833
//Number of zeros 0

#ifndef W4_H_
#define W4_H_

#ifndef __SYNTHESIS__
conv1d_18_weight_t w4[192];
#else
conv1d_18_weight_t w4[192] = {0.6054, 0.6362, -0.8046, -0.3902, 0.5519, -0.5937, 0.7659, 0.3269, 0.2026, 0.2146, -0.2138, -0.0712, 0.2160, 0.0062, 0.0818, 0.0189, 0.2205, -0.2223, -0.0750, 0.2245, 0.2514, 0.3298, -0.2100, 0.0360, 0.3327, 0.0885, 0.1623, -0.1237, -0.1651, -0.2535, -0.2416, 0.1518, -0.0906, 0.1876, -0.4130, 0.0940, -0.0413, -0.1982, 0.0511, -0.3068, 0.2598, 0.1215, -0.2570, 0.1862, 0.2162, 0.1499, 0.1427, -0.2693, -0.1279, 0.2087, -0.0469, 0.3806, -0.0968, 0.1900, -0.1656, -0.0303, -0.3075, 0.2701, -0.3898, -0.4715, 0.0288, -0.3782, 0.0621, 0.0488, 0.3893, 0.1651, -1.7547, -0.2659, 1.5508, -1.1775, 0.8486, 0.5761, 0.0696, -0.2600, -0.2022, 0.3566, 0.1951, 0.4478, 0.1756, 0.1450, -0.3864, 0.2625, 0.1496, -0.5162, 0.0394, 0.6089, 0.1465, 0.3026, -0.0051, 0.0735, 0.2079, 0.1535, 0.0203, 0.3839, -0.1105, 0.0294, -0.3166, -0.1555, -0.1402, 0.3056, -0.0390, 0.0804, 0.3184, -0.1937, 0.0005, 0.2104, -0.4672, -0.0772, -0.0612, -0.1510, 0.0122, 0.0608, -0.0233, 0.3930, -0.5110, 0.0985, 0.5577, -0.4354, 0.1041, 0.4050, 0.3203, 0.4120, 0.2926, 0.2418, -0.0835, -0.2579, 0.0880, -0.1780, 0.3585, 0.5096, -0.4707, -0.0429, 0.2093, -0.9658, 0.5285, 0.2685, 0.1073, -0.2223, -0.0695, -0.1933, 0.0832, -0.1364, -0.0157, -0.2360, -0.2975, 0.0042, -0.7494, 0.0266, -0.1941, -0.1568, 0.2386, 0.5040, 0.3066, -0.0957, 0.2856, 0.2991, -0.2539, -0.0588, 0.2304, 0.1363, 0.3604, -0.0945, -0.1941, -0.2323, -0.3509, 0.3717, -0.0680, 0.3085, -0.1839, 0.4103, -0.4600, 0.1911, 0.1638, -0.4802, 0.0491, 0.4426, -0.2156, 0.2050, 0.2959, -0.0937, 0.4058, 0.1197, 0.1872, 0.2082, -0.0452, -0.0451, -0.0360, 0.2184, 0.1897, -0.2251, 0.2184, -0.2792};
#endif

#endif
