//Numpy array shape [3, 8, 8]
//Min -0.489733189344
//Max 0.441019922495
//Number of zeros 0

#ifndef W6_H_
#define W6_H_

#ifndef __SYNTHESIS__
conv1d_19_weight_t w6[192];
#else
conv1d_19_weight_t w6[192] = {0.1694345623254776, -0.0340917967259884, -0.3050194680690765, -0.0989385694265366, -0.0878212973475456, 0.0424084439873695, 0.0438228659331799, -0.2133091539144516, 0.0976014062762260, -0.4381162524223328, 0.0363053604960442, -0.4401729702949524, -0.2481762617826462, 0.0874701365828514, -0.0240476932376623, -0.2625169754028320, 0.0045500178821385, 0.3694298863410950, 0.0069971201010048, 0.1683446019887924, 0.2674117982387543, -0.2270049452781677, -0.2030497938394547, -0.1926008909940720, -0.1167299225926399, 0.1225505769252777, 0.0981923714280128, 0.2294651716947556, 0.3159940242767334, 0.3147243857383728, 0.3730399906635284, 0.3299070596694946, 0.3704195618629456, -0.2995614707469940, 0.2084508538246155, -0.0650258436799049, -0.1951925605535507, -0.1041531860828400, -0.0473012924194336, -0.0389432013034821, 0.0098441857844591, 0.1911906301975250, -0.0874790400266647, 0.3033234179019928, 0.2496103197336197, 0.0878924354910851, 0.3266692161560059, 0.4238382875919342, 0.1665383428335190, -0.4667207300662994, -0.0781013444066048, -0.2964887320995331, -0.2802180945873260, -0.4194171726703644, -0.1757247298955917, 0.1417025476694107, -0.0212903916835785, -0.4020816683769226, -0.1364663988351822, -0.2281991392374039, -0.2583132982254028, -0.3604957163333893, -0.1676481068134308, 0.1549683958292007, 0.2499267756938934, -0.0615312457084656, 0.0626984089612961, -0.2491988390684128, -0.2439088970422745, -0.2113747298717499, 0.2429432868957520, -0.1635322868824005, 0.3311614096164703, -0.4645321369171143, -0.0810384750366211, -0.2005871534347534, 0.1102734059095383, -0.2970804572105408, -0.1202115267515182, -0.0507365278899670, -0.4461253285408020, 0.4021596610546112, 0.1803243309259415, -0.1790600270032883, -0.0913349092006683, 0.2556284964084625, 0.0171094238758087, 0.4283009469509125, -0.1428474336862564, 0.0771051123738289, -0.2835641801357269, 0.1502329856157303, 0.2238059788942337, -0.2632949054241180, -0.0240921974182129, -0.1830705404281616, -0.1456823647022247, -0.3976317346096039, -0.4074982702732086, 0.2484381347894669, -0.1470041126012802, -0.2347347736358643, -0.3498941957950592, -0.0392900258302689, -0.1883862912654877, 0.0281021352857351, 0.1569894999265671, 0.1404710710048676, 0.0272284634411335, 0.4410199224948883, 0.3300580382347107, -0.1256279945373535, 0.0558830834925175, -0.0446664765477180, -0.3074323832988739, 0.0631630420684814, -0.0463086180388927, -0.0753632783889771, -0.3160925805568695, -0.0738044679164886, 0.2335558831691742, 0.0097202947363257, 0.0435581393539906, -0.3077757358551025, -0.2187725305557251, 0.2374618649482727, -0.0486766025424004, -0.3332688212394714, 0.0601699762046337, -0.4897331893444061, -0.1138620153069496, 0.1647897064685822, 0.0122293299064040, 0.1843275874853134, 0.0098577989265323, 0.1238566488027573, 0.1223675161600113, -0.1483938694000244, -0.0513671971857548, -0.1924651712179184, -0.2942264080047607, 0.1631791889667511, 0.0444138459861279, -0.0773318037390709, -0.4266525208950043, 0.4202431440353394, 0.0557354539632797, -0.2398619800806046, 0.0978344157338142, 0.2520004808902740, 0.3056666851043701, -0.1276539862155914, -0.3411910831928253, 0.1327332407236099, 0.0830758064985275, 0.1226375773549080, -0.2275880575180054, 0.0422901138663292, 0.2854587733745575, -0.1868679374456406, -0.2507046163082123, -0.0413653478026390, 0.1573422849178314, -0.0622089430689812, 0.0217456612735987, 0.1515954732894897, -0.1111813262104988, 0.0091088311746716, -0.0160643011331558, -0.0563474074006081, -0.0717791467905045, -0.1366619616746902, 0.1292417943477631, -0.0473055206239223, 0.3924269378185272, 0.2289416491985321, -0.1682848632335663, -0.1036483049392700, 0.0490140356123447, -0.2070398926734924, -0.1953232586383820, -0.3325426578521729, 0.0960566774010658, -0.2930323481559753, 0.2799298465251923, -0.4822338819503784, -0.0783929452300072, -0.2483706623315811, -0.1005614399909973, -0.3408876955509186, -0.3947838842868805, -0.4557338058948517};
#endif

#endif
