//Numpy array shape [3, 1, 32]
//Min -1.750000000000
//Max 1.531250000000
//Number of zeros 1

#ifndef W2_H_
#define W2_H_

#ifndef __SYNTHESIS__
weight2_t w2[96];
#else
weight2_t w2[96] = {0.18750, 0.90625, 0.09375, -0.37500, -0.40625, 1.06250, 1.25000, -1.21875, 0.65625, -0.53125, 1.43750, 1.25000, -0.34375, 1.12500, 0.15625, 1.46875, 0.68750, 0.03125, 1.37500, -1.43750, -0.06250, -0.06250, 0.93750, 0.75000, 0.65625, 1.34375, -1.31250, -0.28125, 0.78125, -1.43750, -1.62500, 1.53125, -1.50000, 0.12500, 0.21875, -1.25000, -0.15625, 0.62500, 1.00000, 0.37500, 0.31250, -0.12500, -0.40625, -1.12500, 0.34375, 0.06250, 0.59375, -0.46875, 0.71875, 0.00000, 0.75000, -0.03125, 0.68750, 0.18750, 0.40625, -0.71875, 1.12500, 1.43750, 0.71875, -0.81250, 1.12500, 0.34375, -0.31250, 0.68750, -0.12500, 0.71875, -0.34375, -1.00000, 0.15625, -0.25000, 0.21875, -0.90625, -0.81250, 1.06250, 0.25000, 0.46875, 0.37500, -0.15625, 0.03125, 0.59375, 0.56250, -0.09375, 1.18750, 0.25000, -0.50000, -1.18750, -0.78125, -0.40625, -0.40625, -1.75000, 0.71875, -0.50000, -0.34375, 0.03125, -1.25000, 0.34375};
#endif

#endif
